digraph Tree {
node [shape=box] ;
0 [label="X[0] <= 2.5\ngini = 0.4999\nsamples = 365\nvalue = [180, 185]"] ;
1 [label="X[1] <= 1.5\ngini = 0.3091\nsamples = 89\nvalue = [72, 17]"] ;
0 -> 1 [labeldistance=2.5, labelangle=45, headlabel="True"] ;
2 [label="X[0] <= 1.5\ngini = 0.2907\nsamples = 85\nvalue = [70, 15]"] ;
1 -> 2 ;
3 [label="gini = 0.0\nsamples = 1\nvalue = [1, 0]"] ;
2 -> 3 ;
4 [label="gini = 0.2934\nsamples = 84\nvalue = [69, 15]"] ;
2 -> 4 ;
5 [label="gini = 0.5\nsamples = 4\nvalue = [2, 2]"] ;
1 -> 5 ;
6 [label="X[1] <= 1.5\ngini = 0.4764\nsamples = 276\nvalue = [108, 168]"] ;
0 -> 6 [labeldistance=2.5, labelangle=-45, headlabel="False"] ;
7 [label="X[0] <= 4.5\ngini = 0.4999\nsamples = 185\nvalue = [91, 94]"] ;
6 -> 7 ;
8 [label="X[0] <= 3.5\ngini = 0.4999\nsamples = 184\nvalue = [91, 93]"] ;
7 -> 8 ;
9 [label="gini = 0.4995\nsamples = 155\nvalue = [75, 80]"] ;
8 -> 9 ;
10 [label="gini = 0.4946\nsamples = 29\nvalue = [16, 13]"] ;
8 -> 10 ;
11 [label="gini = 0.0\nsamples = 1\nvalue = [0, 1]"] ;
7 -> 11 ;
12 [label="X[0] <= 4.5\ngini = 0.3038\nsamples = 91\nvalue = [17, 74]"] ;
6 -> 12 ;
13 [label="X[1] <= 2.5\ngini = 0.2828\nsamples = 88\nvalue = [15, 73]"] ;
12 -> 13 ;
14 [label="X[0] <= 3.5\ngini = 0.2907\nsamples = 85\nvalue = [15, 70]"] ;
13 -> 14 ;
15 [label="gini = 0.2907\nsamples = 51\nvalue = [9, 42]"] ;
14 -> 15 ;
16 [label="gini = 0.2907\nsamples = 34\nvalue = [6, 28]"] ;
14 -> 16 ;
17 [label="gini = 0.0\nsamples = 3\nvalue = [0, 3]"] ;
13 -> 17 ;
18 [label="X[1] <= 2.5\ngini = 0.4444\nsamples = 3\nvalue = [2, 1]"] ;
12 -> 18 ;
19 [label="gini = 0.0\nsamples = 2\nvalue = [2, 0]"] ;
18 -> 19 ;
20 [label="gini = 0.0\nsamples = 1\nvalue = [0, 1]"] ;
18 -> 20 ;
}