digraph Tree {
node [shape=box] ;
0 [label="X[0] <= 2.5\ngini = 0.4999\nsamples = 365\nvalue = [180, 185]"] ;
1 [label="X[2] <= 0.5\ngini = 0.3091\nsamples = 89\nvalue = [72, 17]"] ;
0 -> 1 [labeldistance=2.5, labelangle=45, headlabel="True"] ;
2 [label="X[1] <= 1.5\ngini = 0.2162\nsamples = 73\nvalue = [64, 9]"] ;
1 -> 2 ;
3 [label="X[0] <= 1.5\ngini = 0.1975\nsamples = 72\nvalue = [64, 8]"] ;
2 -> 3 ;
4 [label="gini = 0.0\nsamples = 1\nvalue = [1, 0]"] ;
3 -> 4 ;
5 [label="gini = 0.2\nsamples = 71\nvalue = [63, 8]"] ;
3 -> 5 ;
6 [label="gini = 0.0\nsamples = 1\nvalue = [0, 1]"] ;
2 -> 6 ;
7 [label="X[1] <= 1.5\ngini = 0.5\nsamples = 16\nvalue = [8, 8]"] ;
1 -> 7 ;
8 [label="gini = 0.497\nsamples = 13\nvalue = [6, 7]"] ;
7 -> 8 ;
9 [label="gini = 0.4444\nsamples = 3\nvalue = [2, 1]"] ;
7 -> 9 ;
10 [label="X[1] <= 1.5\ngini = 0.4764\nsamples = 276\nvalue = [108, 168]"] ;
0 -> 10 [labeldistance=2.5, labelangle=-45, headlabel="False"] ;
11 [label="X[2] <= 0.5\ngini = 0.4999\nsamples = 185\nvalue = [91, 94]"] ;
10 -> 11 ;
12 [label="X[0] <= 3.5\ngini = 0.4948\nsamples = 118\nvalue = [65, 53]"] ;
11 -> 12 ;
13 [label="gini = 0.4981\nsamples = 98\nvalue = [52, 46]"] ;
12 -> 13 ;
14 [label="gini = 0.455\nsamples = 20\nvalue = [13, 7]"] ;
12 -> 14 ;
15 [label="X[0] <= 4.5\ngini = 0.4749\nsamples = 67\nvalue = [26, 41]"] ;
11 -> 15 ;
16 [label="X[0] <= 3.5\ngini = 0.4775\nsamples = 66\nvalue = [26, 40]"] ;
15 -> 16 ;
17 [label="gini = 0.4814\nsamples = 57\nvalue = [23, 34]"] ;
16 -> 17 ;
18 [label="gini = 0.4444\nsamples = 9\nvalue = [3, 6]"] ;
16 -> 18 ;
19 [label="gini = 0.0\nsamples = 1\nvalue = [0, 1]"] ;
15 -> 19 ;
20 [label="X[0] <= 4.5\ngini = 0.3038\nsamples = 91\nvalue = [17, 74]"] ;
10 -> 20 ;
21 [label="X[1] <= 2.5\ngini = 0.2828\nsamples = 88\nvalue = [15, 73]"] ;
20 -> 21 ;
22 [label="X[2] <= 0.5\ngini = 0.2907\nsamples = 85\nvalue = [15, 70]"] ;
21 -> 22 ;
23 [label="X[0] <= 3.5\ngini = 0.2999\nsamples = 49\nvalue = [9, 40]"] ;
22 -> 23 ;
24 [label="gini = 0.2934\nsamples = 28\nvalue = [5, 23]"] ;
23 -> 24 ;
25 [label="gini = 0.3084\nsamples = 21\nvalue = [4, 17]"] ;
23 -> 25 ;
26 [label="X[0] <= 3.5\ngini = 0.2778\nsamples = 36\nvalue = [6, 30]"] ;
22 -> 26 ;
27 [label="gini = 0.2873\nsamples = 23\nvalue = [4, 19]"] ;
26 -> 27 ;
28 [label="gini = 0.2604\nsamples = 13\nvalue = [2, 11]"] ;
26 -> 28 ;
29 [label="gini = 0.0\nsamples = 3\nvalue = [0, 3]"] ;
21 -> 29 ;
30 [label="X[1] <= 2.5\ngini = 0.4444\nsamples = 3\nvalue = [2, 1]"] ;
20 -> 30 ;
31 [label="gini = 0.0\nsamples = 2\nvalue = [2, 0]"] ;
30 -> 31 ;
32 [label="gini = 0.0\nsamples = 1\nvalue = [0, 1]"] ;
30 -> 32 ;
}